<?xml version="1.0"?>
<opencv_storage>
<cascade>
  <stageType>BOOST</stageType>
  <featureType>HAAR</featureType>
  <height>48</height>
  <width>48</width>
  <stageParams>
    <boostType>GAB</boostType>
    <minHitRate>9.9500000476837158e-01</minHitRate>
    <maxFalseAlarm>5.0000000000000000e-01</maxFalseAlarm>
    <weightTrimRate>9.4999999999999996e-01</weightTrimRate>
    <maxDepth>1</maxDepth>
    <maxWeakCount>100</maxWeakCount></stageParams>
  <featureParams>
    <maxCatCount>0</maxCatCount>
    <featSize>1</featSize>
    <mode>BASIC</mode></featureParams>
  <stageNum>10</stageNum>
  <stages>
    <!-- stage 0 -->
    <_>
      <maxWeakCount>4</maxWeakCount>
      <stageThreshold>-9.5385575294494629e-01</stageThreshold>
      <weakClassifiers>
        <_>
          <internalNodes>
            0 -1 84 -1.5615666285157204e-02</internalNodes>
          <leafValues>
            8.0350196361541748e-01 -7.4475526809692383e-01</leafValues></_>
        <_>
          <internalNodes>
            0 -1 77 -4.3413057923316956e-02</internalNodes>
          <leafValues>
            8.3418864011764526e-01 -4.9123245477676392e-01</leafValues></_>
        <_>
          <internalNodes>
            0 -1 78 -1.0655496269464493e-02</internalNodes>
          <leafValues>
            6.2124347686767578e-01 -3.9123857021331787e-01</leafValues></_>
        <_>
          <internalNodes>
            0 -1 61 -1.1292961239814758e-01</internalNodes>
          <leafValues>
            6.9711494445800781e-01 -3.3911147713661194e-01</leafValues></_></weakClassifiers></_>
    <!-- stage 1 -->
    <_>
      <maxWeakCount>10</maxWeakCount>
      <stageThreshold>-1.4009780883789062e+00</stageThreshold>
      <weakClassifiers>
        <_>
          <internalNodes>
            0 -1 50 -2.2178720682859421e-02</internalNodes>
          <leafValues>
            6.1384332180023193e-01 -5.4581671953201294e-01</leafValues></_>
        <_>
          <internalNodes>
            0 -1 71 -4.4967167079448700e-02</internalNodes>
          <leafValues>
            5.8286488056182861e-01 -5.3299582004547119e-01</leafValues></_>
        <_>
          <internalNodes>
            0 -1 142 -1.6393213300034404e-03</internalNodes>
          <leafValues>
            5.3447049856185913e-01 -3.6849224567413330e-01</leafValues></_>
        <_>
          <internalNodes>
            0 -1 18 -1.0831935703754425e-01</internalNodes>
          <leafValues>
            4.6305963397026062e-01 -3.2723426818847656e-01</leafValues></_>
        <_>
          <internalNodes>
            0 -1 89 -1.6056819586083293e-03</internalNodes>
          <leafValues>
            3.7004351615905762e-01 -4.4062861800193787e-01</leafValues></_>
        <_>
          <internalNodes>
            0 -1 93 2.0071170292794704e-03</internalNodes>
          <leafValues>
            -4.2041853070259094e-01 3.0676645040512085e-01</leafValues></_>
        <_>
          <internalNodes>
            0 -1 83 2.9727978631854057e-02</internalNodes>
          <leafValues>
            1.3631533086299896e-01 -8.3332073688507080e-01</leafValues></_>
        <_>
          <internalNodes>
            0 -1 9 2.3389503359794617e-02</internalNodes>
          <leafValues>
            -2.4146005511283875e-01 6.0988390445709229e-01</leafValues></_>
        <_>
          <internalNodes>
            0 -1 111 -2.7180549222975969e-03</internalNodes>
          <leafValues>
            3.9797750115394592e-01 -3.7474918365478516e-01</leafValues></_>
        <_>
          <internalNodes>
            0 -1 16 -5.7301245629787445e-02</internalNodes>
          <leafValues>
            6.4783531427383423e-01 -2.3545196652412415e-01</leafValues></_></weakClassifiers></_>
    <!-- stage 2 -->
    <_>
      <maxWeakCount>12</maxWeakCount>
      <stageThreshold>-1.1908557415008545e+00</stageThreshold>
      <weakClassifiers>
        <_>
          <internalNodes>
            0 -1 63 -7.2075009346008301e-02</internalNodes>
          <leafValues>
            7.2575253248214722e-01 -3.5704123973846436e-01</leafValues></_>
        <_>
          <internalNodes>
            0 -1 104 4.1956366039812565e-03</internalNodes>
          <leafValues>
            -6.6318488121032715e-01 4.5382243394851685e-01</leafValues></_>
        <_>
          <internalNodes>
            0 -1 49 8.9727826416492462e-03</internalNodes>
          <leafValues>
            -2.4621893465518951e-01 5.8336359262466431e-01</leafValues></_>
        <_>
          <internalNodes>
            0 -1 40 -1.2980106472969055e-01</internalNodes>
          <leafValues>
            6.8684321641921997e-01 -1.9127105176448822e-01</leafValues></_>
        <_>
          <internalNodes>
            0 -1 165 -4.0022046305239201e-03</internalNodes>
          <leafValues>
            7.6384967565536499e-01 -1.4672657847404480e-01</leafValues></_>
        <_>
          <internalNodes>
            0 -1 26 2.6511729229241610e-03</internalNodes>
          <leafValues>
            -2.7505913376808167e-01 4.1970825195312500e-01</leafValues></_>
        <_>
          <internalNodes>
            0 -1 15 5.5249471217393875e-02</internalNodes>
          <leafValues>
            1.3464169204235077e-01 -8.1534129381179810e-01</leafValues></_>
        <_>
          <internalNodes>
            0 -1 114 1.6407914459705353e-02</internalNodes>
          <leafValues>
            -1.7046532034873962e-01 6.1107468605041504e-01</leafValues></_>
        <_>
          <internalNodes>
            0 -1 126 -1.1062375269830227e-03</internalNodes>
          <leafValues>
            4.1346824169158936e-01 -3.0182906985282898e-01</leafValues></_>
        <_>
          <internalNodes>
            0 -1 159 6.5056951716542244e-03</internalNodes>
          <leafValues>
            -1.4350765943527222e-01 7.5451576709747314e-01</leafValues></_>
        <_>
          <internalNodes>
            0 -1 96 -4.2217550799250603e-03</internalNodes>
          <leafValues>
            2.1338208019733429e-01 -5.7386183738708496e-01</leafValues></_>
        <_>
          <internalNodes>
            0 -1 100 -2.7080345898866653e-04</internalNodes>
          <leafValues>
            3.3360362052917480e-01 -3.4546917676925659e-01</leafValues></_></weakClassifiers></_>
    <!-- stage 3 -->
    <_>
      <maxWeakCount>16</maxWeakCount>
      <stageThreshold>-1.2113237380981445e+00</stageThreshold>
      <weakClassifiers>
        <_>
          <internalNodes>
            0 -1 41 -8.2867622375488281e-02</internalNodes>
          <leafValues>
            7.1758663654327393e-01 -1.9366626441478729e-01</leafValues></_>
        <_>
          <internalNodes>
            0 -1 53 5.6236358359456062e-03</internalNodes>
          <leafValues>
            -5.2074325084686279e-01 4.4721218943595886e-01</leafValues></_>
        <_>
          <internalNodes>
            0 -1 112 -1.8772341310977936e-02</internalNodes>
          <leafValues>
            4.9266073107719421e-01 -3.4482255578041077e-01</leafValues></_>
        <_>
          <internalNodes>
            0 -1 60 -5.1088102161884308e-02</internalNodes>
          <leafValues>
            4.9330577254295349e-01 -3.2869219779968262e-01</leafValues></_>
        <_>
          <internalNodes>
            0 -1 8 6.0312405228614807e-02</internalNodes>
          <leafValues>
            -1.7806757986545563e-01 7.3634600639343262e-01</leafValues></_>
        <_>
          <internalNodes>
            0 -1 44 -6.2078814953565598e-03</internalNodes>
          <leafValues>
            3.8692674040794373e-01 -2.4002669751644135e-01</leafValues></_>
        <_>
          <internalNodes>
            0 -1 54 6.6897133365273476e-03</internalNodes>
          <leafValues>
            -2.3239189386367798e-01 4.1565027832984924e-01</leafValues></_>
        <_>
          <internalNodes>
            0 -1 136 -8.4612795035354793e-05</internalNodes>
          <leafValues>
            2.8652477264404297e-01 -3.9797142148017883e-01</leafValues></_>
        <_>
          <internalNodes>
            0 -1 143 -1.0793161578476429e-02</internalNodes>
          <leafValues>
            5.5958127975463867e-01 -1.9282580912113190e-01</leafValues></_>
        <_>
          <internalNodes>
            0 -1 34 5.2768848836421967e-03</internalNodes>
          <leafValues>
            -1.5376308560371399e-01 4.9500381946563721e-01</leafValues></_>
        <_>
          <internalNodes>
            0 -1 29 5.1916381344199181e-03</internalNodes>
          <leafValues>
            -1.1223292350769043e-01 7.0398002862930298e-01</leafValues></_>
        <_>
          <internalNodes>
            0 -1 131 -4.5766189694404602e-02</internalNodes>
          <leafValues>
            6.4232981204986572e-01 -1.1174792796373367e-01</leafValues></_>
        <_>
          <internalNodes>
            0 -1 152 -1.8574194982647896e-02</internalNodes>
          <leafValues>
            7.2766786813735962e-01 -1.2894792854785919e-01</leafValues></_>
        <_>
          <internalNodes>
            0 -1 117 -1.0012793354690075e-03</internalNodes>
          <leafValues>
            3.2117521762847900e-01 -3.0820629000663757e-01</leafValues></_>
        <_>
          <internalNodes>
            0 -1 105 1.3552148593589664e-03</internalNodes>
          <leafValues>
            -4.1705629229545593e-01 2.7921268343925476e-01</leafValues></_>
        <_>
          <internalNodes>
            0 -1 121 -2.6267506182193756e-02</internalNodes>
          <leafValues>
            3.8767671585083008e-01 -2.7072089910507202e-01</leafValues></_></weakClassifiers></_>
    <!-- stage 4 -->
    <_>
      <maxWeakCount>19</maxWeakCount>
      <stageThreshold>-1.1014573574066162e+00</stageThreshold>
      <weakClassifiers>
        <_>
          <internalNodes>
            0 -1 6 -1.5614038705825806e-01</internalNodes>
          <leafValues>
            7.5000000000000000e-01 -5.6451611220836639e-02</leafValues></_>
        <_>
          <internalNodes>
            0 -1 135 1.1284979991614819e-03</internalNodes>
          <leafValues>
            -5.3663760423660278e-01 3.0538856983184814e-01</leafValues></_>
        <_>
          <internalNodes>
            0 -1 86 -7.2665880434215069e-03</internalNodes>
          <leafValues>
            2.7477994561195374e-01 -5.2001374959945679e-01</leafValues></_>
        <_>
          <internalNodes>
            0 -1 17 5.4395683109760284e-03</internalNodes>
          <leafValues>
            -2.3469038307666779e-01 5.0534850358963013e-01</leafValues></_>
        <_>
          <internalNodes>
            0 -1 21 -8.1908583641052246e-02</internalNodes>
          <leafValues>
            -6.2479001283645630e-01 1.0961876809597015e-01</leafValues></_>
        <_>
          <internalNodes>
            0 -1 144 -4.6830093488097191e-03</internalNodes>
          <leafValues>
            3.7553009390830994e-01 -1.8904171884059906e-01</leafValues></_>
        <_>
          <internalNodes>
            0 -1 113 -7.4080392718315125e-02</internalNodes>
          <leafValues>
            5.6240063905715942e-01 -1.7872041463851929e-01</leafValues></_>
        <_>
          <internalNodes>
            0 -1 91 1.8056062981486320e-03</internalNodes>
          <leafValues>
            1.7750196158885956e-01 -4.9305972456932068e-01</leafValues></_>
        <_>
          <internalNodes>
            0 -1 115 -1.6960414359346032e-03</internalNodes>
          <leafValues>
            2.4980357289314270e-01 -3.1838494539260864e-01</leafValues></_>
        <_>
          <internalNodes>
            0 -1 148 -1.0288724675774574e-02</internalNodes>
          <leafValues>
            5.5101436376571655e-01 -1.6203738749027252e-01</leafValues></_>
        <_>
          <internalNodes>
            0 -1 79 2.3079321545083076e-04</internalNodes>
          <leafValues>
            -3.1123307347297668e-01 2.8396564722061157e-01</leafValues></_>
        <_>
          <internalNodes>
            0 -1 10 4.6370546333491802e-03</internalNodes>
          <leafValues>
            -1.5923407673835754e-01 4.8338532447814941e-01</leafValues></_>
        <_>
          <internalNodes>
            0 -1 123 5.7505425065755844e-03</internalNodes>
          <leafValues>
            -1.1903872340917587e-01 6.2482309341430664e-01</leafValues></_>
        <_>
          <internalNodes>
            0 -1 122 -8.6221531091723591e-05</internalNodes>
          <leafValues>
            2.3103336989879608e-01 -3.9550420641899109e-01</leafValues></_>
        <_>
          <internalNodes>
            0 -1 31 -7.4482873082160950e-02</internalNodes>
          <leafValues>
            5.8955943584442139e-01 -1.4729969203472137e-01</leafValues></_>
        <_>
          <internalNodes>
            0 -1 30 -2.4647335521876812e-03</internalNodes>
          <leafValues>
            4.6267372369766235e-01 -1.4977908134460449e-01</leafValues></_>
        <_>
          <internalNodes>
            0 -1 76 -2.4446360766887665e-03</internalNodes>
          <leafValues>
            1.6065402328968048e-01 -5.2443563938140869e-01</leafValues></_>
        <_>
          <internalNodes>
            0 -1 23 -2.4224194930866361e-04</internalNodes>
          <leafValues>
            -4.5491912961006165e-01 1.5614229440689087e-01</leafValues></_>
        <_>
          <internalNodes>
            0 -1 134 -3.2591244689683663e-06</internalNodes>
          <leafValues>
            2.3906502127647400e-01 -3.3313465118408203e-01</leafValues></_></weakClassifiers></_>
    <!-- stage 5 -->
    <_>
      <maxWeakCount>19</maxWeakCount>
      <stageThreshold>-9.2461180686950684e-01</stageThreshold>
      <weakClassifiers>
        <_>
          <internalNodes>
            0 -1 147 5.7353265583515167e-02</internalNodes>
          <leafValues>
            -2.6239067316055298e-02 7.4781084060668945e-01</leafValues></_>
        <_>
          <internalNodes>
            0 -1 47 1.6686864197254181e-02</internalNodes>
          <leafValues>
            -1.6151648759841919e-01 6.3086658716201782e-01</leafValues></_>
        <_>
          <internalNodes>
            0 -1 13 6.4123682677745819e-03</internalNodes>
          <leafValues>
            -2.3447711765766144e-01 3.9946436882019043e-01</leafValues></_>
        <_>
          <internalNodes>
            0 -1 145 -1.0478049516677856e-03</internalNodes>
          <leafValues>
            3.5236513614654541e-01 -2.5357595086097717e-01</leafValues></_>
        <_>
          <internalNodes>
            0 -1 52 -6.3683427870273590e-03</internalNodes>
          <leafValues>
            1.8006566166877747e-01 -5.1632440090179443e-01</leafValues></_>
        <_>
          <internalNodes>
            0 -1 55 -6.3268481753766537e-03</internalNodes>
          <leafValues>
            8.6098468303680420e-01 -9.1416157782077789e-02</leafValues></_>
        <_>
          <internalNodes>
            0 -1 70 -1.3589132577180862e-02</internalNodes>
          <leafValues>
            2.5706836581230164e-01 -3.0883347988128662e-01</leafValues></_>
        <_>
          <internalNodes>
            0 -1 24 8.8009469211101532e-02</internalNodes>
          <leafValues>
            1.1940180510282516e-01 -7.3827403783798218e-01</leafValues></_>
        <_>
          <internalNodes>
            0 -1 80 3.6965392064303160e-03</internalNodes>
          <leafValues>
            -3.3698365092277527e-01 1.9840385019779205e-01</leafValues></_>
        <_>
          <internalNodes>
            0 -1 68 1.6851589083671570e-02</internalNodes>
          <leafValues>
            -1.8396508693695068e-01 4.1618007421493530e-01</leafValues></_>
        <_>
          <internalNodes>
            0 -1 37 3.2862140797078609e-03</internalNodes>
          <leafValues>
            -2.1842777729034424e-01 3.9094415307044983e-01</leafValues></_>
        <_>
          <internalNodes>
            0 -1 85 -4.9553047865629196e-03</internalNodes>
          <leafValues>
            -7.0179277658462524e-01 9.6011430025100708e-02</leafValues></_>
        <_>
          <internalNodes>
            0 -1 160 6.3083432614803314e-03</internalNodes>
          <leafValues>
            -2.0237192511558533e-01 3.5956758260726929e-01</leafValues></_>
        <_>
          <internalNodes>
            0 -1 120 4.9707312427926809e-05</internalNodes>
          <leafValues>
            -5.2277946472167969e-01 1.6293939948081970e-01</leafValues></_>
        <_>
          <internalNodes>
            0 -1 88 -2.4004274746403098e-04</internalNodes>
          <leafValues>
            3.0905354022979736e-01 -2.3188000917434692e-01</leafValues></_>
        <_>
          <internalNodes>
            0 -1 151 -2.0955968648195267e-02</internalNodes>
          <leafValues>
            6.4804440736770630e-01 -1.0860335081815720e-01</leafValues></_>
        <_>
          <internalNodes>
            0 -1 118 -7.9405849101021886e-04</internalNodes>
          <leafValues>
            2.4895876646041870e-01 -3.0608963966369629e-01</leafValues></_>
        <_>
          <internalNodes>
            0 -1 64 -5.1438786089420319e-02</internalNodes>
          <leafValues>
            -7.9324316978454590e-01 1.0357014834880829e-01</leafValues></_>
        <_>
          <internalNodes>
            0 -1 62 -5.7125613093376160e-03</internalNodes>
          <leafValues>
            4.1552886366844177e-01 -1.8426050245761871e-01</leafValues></_></weakClassifiers></_>
    <!-- stage 6 -->
    <_>
      <maxWeakCount>18</maxWeakCount>
      <stageThreshold>-9.3794339895248413e-01</stageThreshold>
      <weakClassifiers>
        <_>
          <internalNodes>
            0 -1 95 -5.4698646068572998e-02</internalNodes>
          <leafValues>
            7.6447874307632446e-01 3.6968577187508345e-03</leafValues></_>
        <_>
          <internalNodes>
            0 -1 87 -3.6493327468633652e-02</internalNodes>
          <leafValues>
            3.8751348853111267e-01 -3.1787797808647156e-01</leafValues></_>
        <_>
          <internalNodes>
            0 -1 65 8.4822933422401547e-04</internalNodes>
          <leafValues>
            -3.4200161695480347e-01 2.8911918401718140e-01</leafValues></_>
        <_>
          <internalNodes>
            0 -1 35 -2.1585293114185333e-02</internalNodes>
          <leafValues>
            4.7781765460968018e-01 -1.6321265697479248e-01</leafValues></_>
        <_>
          <internalNodes>
            0 -1 67 1.7862271517515182e-02</internalNodes>
          <leafValues>
            -1.8130247294902802e-01 4.5290368795394897e-01</leafValues></_>
        <_>
          <internalNodes>
            0 -1 129 1.7129657790064812e-03</internalNodes>
          <leafValues>
            -3.3944183588027954e-01 2.5707376003265381e-01</leafValues></_>
        <_>
          <internalNodes>
            0 -1 146 -2.5440543889999390e-02</internalNodes>
          <leafValues>
            5.3433775901794434e-01 -1.4581882953643799e-01</leafValues></_>
        <_>
          <internalNodes>
            0 -1 107 -2.6612613350152969e-02</internalNodes>
          <leafValues>
            5.2129638195037842e-01 -1.6275542974472046e-01</leafValues></_>
        <_>
          <internalNodes>
            0 -1 153 -1.3186185387894511e-03</internalNodes>
          <leafValues>
            3.3420851826667786e-01 -1.9936996698379517e-01</leafValues></_>
        <_>
          <internalNodes>
            0 -1 74 -3.6725243553519249e-03</internalNodes>
          <leafValues>
            2.1727375686168671e-01 -3.2221564650535583e-01</leafValues></_>
        <_>
          <internalNodes>
            0 -1 110 4.8863794654607773e-04</internalNodes>
          <leafValues>
            9.4150796532630920e-02 -6.5930926799774170e-01</leafValues></_>
        <_>
          <internalNodes>
            0 -1 0 -1.3793912949040532e-03</internalNodes>
          <leafValues>
            -4.8332360386848450e-01 1.2219101935625076e-01</leafValues></_>
        <_>
          <internalNodes>
            0 -1 57 -2.0920885726809502e-03</internalNodes>
          <leafValues>
            5.3958749771118164e-01 -1.2543004751205444e-01</leafValues></_>
        <_>
          <internalNodes>
            0 -1 116 1.9711663480848074e-04</internalNodes>
          <leafValues>
            -2.3931069672107697e-01 2.8898766636848450e-01</leafValues></_>
        <_>
          <internalNodes>
            0 -1 150 2.6601748540997505e-03</internalNodes>
          <leafValues>
            -1.4925502240657806e-01 4.6177479624748230e-01</leafValues></_>
        <_>
          <internalNodes>
            0 -1 48 2.0638490095734596e-02</internalNodes>
          <leafValues>
            1.3587929308414459e-01 -5.2304679155349731e-01</leafValues></_>
        <_>
          <internalNodes>
            0 -1 51 1.1257049627602100e-03</internalNodes>
          <leafValues>
            -1.6867288947105408e-01 4.3050768971443176e-01</leafValues></_>
        <_>
          <internalNodes>
            0 -1 103 -2.6886467821896076e-03</internalNodes>
          <leafValues>
            2.9231664538383484e-01 -2.7087652683258057e-01</leafValues></_></weakClassifiers></_>
    <!-- stage 7 -->
    <_>
      <maxWeakCount>21</maxWeakCount>
      <stageThreshold>-8.3781665563583374e-01</stageThreshold>
      <weakClassifiers>
        <_>
          <internalNodes>
            0 -1 46 -3.8957618176937103e-02</internalNodes>
          <leafValues>
            5.2757543325424194e-01 -1.6744914650917053e-01</leafValues></_>
        <_>
          <internalNodes>
            0 -1 42 -1.8244284391403198e-01</internalNodes>
          <leafValues>
            4.6188086271286011e-01 -1.9813157618045807e-01</leafValues></_>
        <_>
          <internalNodes>
            0 -1 119 3.8309238152578473e-04</internalNodes>
          <leafValues>
            -5.2640700340270996e-01 1.6361327469348907e-01</leafValues></_>
        <_>
          <internalNodes>
            0 -1 66 1.1033063055947423e-03</internalNodes>
          <leafValues>
            -2.9515537619590759e-01 2.4338115751743317e-01</leafValues></_>
        <_>
          <internalNodes>
            0 -1 19 -8.6138732731342316e-03</internalNodes>
          <leafValues>
            4.4896703958511353e-01 -1.5759317576885223e-01</leafValues></_>
        <_>
          <internalNodes>
            0 -1 154 -1.8100362271070480e-02</internalNodes>
          <leafValues>
            6.0164946317672729e-01 -1.1438836902379990e-01</leafValues></_>
        <_>
          <internalNodes>
            0 -1 108 -2.7422909624874592e-03</internalNodes>
          <leafValues>
            2.9814875125885010e-01 -3.7637856602668762e-01</leafValues></_>
        <_>
          <internalNodes>
            0 -1 3 6.1442219885066152e-04</internalNodes>
          <leafValues>
            1.1886512488126755e-01 -5.7290637493133545e-01</leafValues></_>
        <_>
          <internalNodes>
            0 -1 20 -6.9601465947926044e-03</internalNodes>
          <leafValues>
            3.6873599886894226e-01 -1.7120568454265594e-01</leafValues></_>
        <_>
          <internalNodes>
            0 -1 163 -6.4669211860746145e-04</internalNodes>
          <leafValues>
            -4.2245930433273315e-01 1.3685357570648193e-01</leafValues></_>
        <_>
          <internalNodes>
            0 -1 82 -3.9412930607795715e-02</internalNodes>
          <leafValues>
            -8.2731318473815918e-01 8.5654452443122864e-02</leafValues></_>
        <_>
          <internalNodes>
            0 -1 73 5.9096119366586208e-04</internalNodes>
          <leafValues>
            -3.1962588429450989e-01 1.9276623427867889e-01</leafValues></_>
        <_>
          <internalNodes>
            0 -1 166 -9.1826077550649643e-04</internalNodes>
          <leafValues>
            -4.2781376838684082e-01 1.5359337627887726e-01</leafValues></_>
        <_>
          <internalNodes>
            0 -1 14 1.5166028169915080e-03</internalNodes>
          <leafValues>
            -2.5928467512130737e-01 2.5965625047683716e-01</leafValues></_>
        <_>
          <internalNodes>
            0 -1 2 -9.3277136329561472e-05</internalNodes>
          <leafValues>
            -4.5686292648315430e-01 1.4836162328720093e-01</leafValues></_>
        <_>
          <internalNodes>
            0 -1 43 -6.5898121101781726e-04</internalNodes>
          <leafValues>
            4.9581715464591980e-01 -1.4259774982929230e-01</leafValues></_>
        <_>
          <internalNodes>
            0 -1 69 -6.2749378383159637e-02</internalNodes>
          <leafValues>
            2.6187014579772949e-01 -2.4895106256008148e-01</leafValues></_>
        <_>
          <internalNodes>
            0 -1 12 3.4518763422966003e-02</internalNodes>
          <leafValues>
            -1.5596652030944824e-01 5.3758698701858521e-01</leafValues></_>
        <_>
          <internalNodes>
            0 -1 101 -1.9187323749065399e-02</internalNodes>
          <leafValues>
            -8.5122495889663696e-01 1.0112326592206955e-01</leafValues></_>
        <_>
          <internalNodes>
            0 -1 98 -4.1860807687044144e-04</internalNodes>
          <leafValues>
            1.8816551566123962e-01 -3.4246042370796204e-01</leafValues></_>
        <_>
          <internalNodes>
            0 -1 94 -1.8264926620759070e-04</internalNodes>
          <leafValues>
            -5.0414842367172241e-01 1.2709842622280121e-01</leafValues></_></weakClassifiers></_>
    <!-- stage 8 -->
    <_>
      <maxWeakCount>23</maxWeakCount>
      <stageThreshold>-9.3143594264984131e-01</stageThreshold>
      <weakClassifiers>
        <_>
          <internalNodes>
            0 -1 92 3.9140600711107254e-03</internalNodes>
          <leafValues>
            -2.6741573214530945e-01 4.4935065507888794e-01</leafValues></_>
        <_>
          <internalNodes>
            0 -1 7 -2.2310978174209595e-01</internalNodes>
          <leafValues>
            5.2585750818252563e-01 -2.2888834774494171e-01</leafValues></_>
        <_>
          <internalNodes>
            0 -1 25 9.8093152046203613e-03</internalNodes>
          <leafValues>
            -1.7068514227867126e-01 4.3776145577430725e-01</leafValues></_>
        <_>
          <internalNodes>
            0 -1 149 3.1604296964360401e-05</internalNodes>
          <leafValues>
            -3.4016367793083191e-01 1.8104299902915955e-01</leafValues></_>
        <_>
          <internalNodes>
            0 -1 156 8.2918372936546803e-04</internalNodes>
          <leafValues>
            1.5124942362308502e-01 -4.3899390101432800e-01</leafValues></_>
        <_>
          <internalNodes>
            0 -1 75 5.1952805370092392e-02</internalNodes>
          <leafValues>
            -1.0775551199913025e-01 6.1747300624847412e-01</leafValues></_>
        <_>
          <internalNodes>
            0 -1 97 -2.7407952584326267e-03</internalNodes>
          <leafValues>
            2.2193142771720886e-01 -3.2611548900604248e-01</leafValues></_>
        <_>
          <internalNodes>
            0 -1 161 -1.9450057880021632e-04</internalNodes>
          <leafValues>
            3.9734190702438354e-01 -1.7447745800018311e-01</leafValues></_>
        <_>
          <internalNodes>
            0 -1 109 -1.3132199645042419e-02</internalNodes>
          <leafValues>
            -8.4925055503845215e-01 6.8086609244346619e-02</leafValues></_>
        <_>
          <internalNodes>
            0 -1 32 9.1476198285818100e-03</internalNodes>
          <leafValues>
            1.0009334236383438e-01 -5.1923573017120361e-01</leafValues></_>
        <_>
          <internalNodes>
            0 -1 106 -9.2715909704566002e-04</internalNodes>
          <leafValues>
            1.6885700821876526e-01 -3.7263739109039307e-01</leafValues></_>
        <_>
          <internalNodes>
            0 -1 38 -1.0617207735776901e-02</internalNodes>
          <leafValues>
            4.4403806328773499e-01 -1.5258307754993439e-01</leafValues></_>
        <_>
          <internalNodes>
            0 -1 125 -1.1701965704560280e-03</internalNodes>
          <leafValues>
            2.1527664363384247e-01 -3.0860850214958191e-01</leafValues></_>
        <_>
          <internalNodes>
            0 -1 59 5.7910811156034470e-03</internalNodes>
          <leafValues>
            -1.1470177024602890e-01 6.0105854272842407e-01</leafValues></_>
        <_>
          <internalNodes>
            0 -1 81 9.8797190003097057e-04</internalNodes>
          <leafValues>
            -2.8508296608924866e-01 2.3347030580043793e-01</leafValues></_>
        <_>
          <internalNodes>
            0 -1 5 6.4120069146156311e-03</internalNodes>
          <leafValues>
            -1.3512746989727020e-01 4.9216267466545105e-01</leafValues></_>
        <_>
          <internalNodes>
            0 -1 162 4.2996499687433243e-03</internalNodes>
          <leafValues>
            1.3007213175296783e-01 -5.4072898626327515e-01</leafValues></_>
        <_>
          <internalNodes>
            0 -1 28 5.2493670955300331e-03</internalNodes>
          <leafValues>
            -1.4993083477020264e-01 4.5434945821762085e-01</leafValues></_>
        <_>
          <internalNodes>
            0 -1 22 7.4365816544741392e-04</internalNodes>
          <leafValues>
            1.7139069736003876e-01 -4.1437679529190063e-01</leafValues></_>
        <_>
          <internalNodes>
            0 -1 132 2.0553455688059330e-03</internalNodes>
          <leafValues>
            1.1004891991615295e-01 -5.6951940059661865e-01</leafValues></_>
        <_>
          <internalNodes>
            0 -1 157 -2.2510362032335252e-04</internalNodes>
          <leafValues>
            3.8350933790206909e-01 -1.5298917889595032e-01</leafValues></_>
        <_>
          <internalNodes>
            0 -1 58 -2.4156912695616484e-03</internalNodes>
          <leafValues>
            2.2247037291526794e-01 -2.6640444993972778e-01</leafValues></_>
        <_>
          <internalNodes>
            0 -1 155 -8.6374941747635603e-04</internalNodes>
          <leafValues>
            3.3543214201927185e-01 -1.9423107802867889e-01</leafValues></_></weakClassifiers></_>
    <!-- stage 9 -->
    <_>
      <maxWeakCount>26</maxWeakCount>
      <stageThreshold>-9.1675156354904175e-01</stageThreshold>
      <weakClassifiers>
        <_>
          <internalNodes>
            0 -1 56 1.0170798748731613e-02</internalNodes>
          <leafValues>
            -3.8335159420967102e-02 6.3318777084350586e-01</leafValues></_>
        <_>
          <internalNodes>
            0 -1 36 -1.5627953410148621e-01</internalNodes>
          <leafValues>
            4.5112410187721252e-01 -2.4864676594734192e-01</leafValues></_>
        <_>
          <internalNodes>
            0 -1 141 -9.9043478257954121e-05</internalNodes>
          <leafValues>
            2.4268808960914612e-01 -3.6199319362640381e-01</leafValues></_>
        <_>
          <internalNodes>
            0 -1 27 1.1275446042418480e-02</internalNodes>
          <leafValues>
            -1.3302396237850189e-01 5.4064762592315674e-01</leafValues></_>
        <_>
          <internalNodes>
            0 -1 1 1.9934784621000290e-02</internalNodes>
          <leafValues>
            -2.1080711483955383e-01 3.6086878180503845e-01</leafValues></_>
        <_>
          <internalNodes>
            0 -1 124 2.9177977703511715e-03</internalNodes>
          <leafValues>
            1.0284183174371719e-01 -6.4931952953338623e-01</leafValues></_>
        <_>
          <internalNodes>
            0 -1 164 -8.1350642722100019e-04</internalNodes>
          <leafValues>
            4.3984484672546387e-01 -1.6665579378604889e-01</leafValues></_>
        <_>
          <internalNodes>
            0 -1 99 7.1390252560377121e-04</internalNodes>
          <leafValues>
            -2.4307256937026978e-01 2.7528843283653259e-01</leafValues></_>
        <_>
          <internalNodes>
            0 -1 90 -5.0618452951312065e-04</internalNodes>
          <leafValues>
            3.3611840009689331e-01 -2.1310254931449890e-01</leafValues></_>
        <_>
          <internalNodes>
            0 -1 127 1.4518463984131813e-02</internalNodes>
          <leafValues>
            -6.2543630599975586e-02 8.4841364622116089e-01</leafValues></_>
        <_>
          <internalNodes>
            0 -1 139 -4.3820316204801202e-04</internalNodes>
          <leafValues>
            2.8444522619247437e-01 -2.5203743577003479e-01</leafValues></_>
        <_>
          <internalNodes>
            0 -1 158 3.0893306247889996e-03</internalNodes>
          <leafValues>
            -1.3022847473621368e-01 5.7407528162002563e-01</leafValues></_>
        <_>
          <internalNodes>
            0 -1 39 3.5983063280582428e-03</internalNodes>
          <leafValues>
            -1.0284570604562759e-01 5.7363611459732056e-01</leafValues></_>
        <_>
          <internalNodes>
            0 -1 11 -4.9051009118556976e-02</internalNodes>
          <leafValues>
            3.5647207498550415e-01 -1.9962020218372345e-01</leafValues></_>
        <_>
          <internalNodes>
            0 -1 33 5.8234704192727804e-04</internalNodes>
          <leafValues>
            -9.9309585988521576e-02 6.2107920646667480e-01</leafValues></_>
        <_>
          <internalNodes>
            0 -1 137 3.5015901084989309e-04</internalNodes>
          <leafValues>
            1.0513284802436829e-01 -6.0830646753311157e-01</leafValues></_>
        <_>
          <internalNodes>
            0 -1 45 -3.1632180252927355e-06</internalNodes>
          <leafValues>
            2.1259705722332001e-01 -2.4742160737514496e-01</leafValues></_>
        <_>
          <internalNodes>
            0 -1 130 -2.1942453458905220e-03</internalNodes>
          <leafValues>
            2.4078580737113953e-01 -2.2466225922107697e-01</leafValues></_>
        <_>
          <internalNodes>
            0 -1 4 -3.2640263438224792e-02</internalNodes>
          <leafValues>
            5.0658500194549561e-01 -1.3040584325790405e-01</leafValues></_>
        <_>
          <internalNodes>
            0 -1 140 1.7316828598268330e-04</internalNodes>
          <leafValues>
            -2.1783374249935150e-01 2.6582244038581848e-01</leafValues></_>
        <_>
          <internalNodes>
            0 -1 102 -1.2545154895633459e-03</internalNodes>
          <leafValues>
            6.9916635751724243e-01 -8.2325324416160583e-02</leafValues></_>
        <_>
          <internalNodes>
            0 -1 72 -9.8461739253252745e-04</internalNodes>
          <leafValues>
            2.5674411654472351e-01 -2.3649489879608154e-01</leafValues></_>
        <_>
          <internalNodes>
            0 -1 128 -1.2652068107854575e-04</internalNodes>
          <leafValues>
            1.7026223242282867e-01 -3.4571304917335510e-01</leafValues></_>
        <_>
          <internalNodes>
            0 -1 133 8.8601633906364441e-03</internalNodes>
          <leafValues>
            -1.5928022563457489e-01 5.0614351034164429e-01</leafValues></_>
        <_>
          <internalNodes>
            0 -1 138 2.8799937354051508e-05</internalNodes>
          <leafValues>
            2.1583001315593719e-01 -3.0626520514488220e-01</leafValues></_>
        <_>
          <internalNodes>
            0 -1 167 -2.2994892788119614e-04</internalNodes>
          <leafValues>
            -4.3137034773826599e-01 1.4097355306148529e-01</leafValues></_></weakClassifiers></_></stages>
  <features>
    <_>
      <rects>
        <_>
          0 10 1 15 -1.</_>
        <_>
          0 15 1 5 3.</_></rects>
      <tilted>0</tilted></_>
    <_>
      <rects>
        <_>
          0 32 37 10 -1.</_>
        <_>
          0 37 37 5 2.</_></rects>
      <tilted>0</tilted></_>
    <_>
      <rects>
        <_>
          1 36 3 1 -1.</_>
        <_>
          2 36 1 1 3.</_></rects>
      <tilted>0</tilted></_>
    <_>
      <rects>
        <_>
          2 1 4 4 -1.</_>
        <_>
          2 1 2 2 2.</_>
        <_>
          4 3 2 2 2.</_></rects>
      <tilted>0</tilted></_>
    <_>
      <rects>
        <_>
          2 29 39 7 -1.</_>
        <_>
          15 29 13 7 3.</_></rects>
      <tilted>0</tilted></_>
    <_>
      <rects>
        <_>
          3 4 28 6 -1.</_>
        <_>
          3 4 14 3 2.</_>
        <_>
          17 7 14 3 2.</_></rects>
      <tilted>0</tilted></_>
    <_>
      <rects>
        <_>
          3 12 45 13 -1.</_>
        <_>
          18 12 15 13 3.</_></rects>
      <tilted>0</tilted></_>
    <_>
      <rects>
        <_>
          3 14 45 24 -1.</_>
        <_>
          18 14 15 24 3.</_></rects>
      <tilted>0</tilted></_>
    <_>
      <rects>
        <_>
          3 25 42 5 -1.</_>
        <_>
          17 25 14 5 3.</_></rects>
      <tilted>0</tilted></_>
    <_>
      <rects>
        <_>
          3 30 29 15 -1.</_>
        <_>
          3 35 29 5 3.</_></rects>
      <tilted>0</tilted></_>
    <_>
      <rects>
        <_>
          4 11 16 3 -1.</_>
        <_>
          12 11 8 3 2.</_></rects>
      <tilted>0</tilted></_>
    <_>
      <rects>
        <_>
          5 2 31 14 -1.</_>
        <_>
          5 9 31 7 2.</_></rects>
      <tilted>0</tilted></_>
    <_>
      <rects>
        <_>
          5 12 16 20 -1.</_>
        <_>
          13 12 8 20 2.</_></rects>
      <tilted>0</tilted></_>
    <_>
      <rects>
        <_>
          5 18 12 8 -1.</_>
        <_>
          9 18 4 8 3.</_></rects>
      <tilted>0</tilted></_>
    <_>
      <rects>
        <_>
          5 19 14 8 -1.</_>
        <_>
          5 19 7 4 2.</_>
        <_>
          12 23 7 4 2.</_></rects>
      <tilted>0</tilted></_>
    <_>
      <rects>
        <_>
          6 18 36 12 -1.</_>
        <_>
          24 18 18 12 2.</_></rects>
      <tilted>0</tilted></_>
    <_>
      <rects>
        <_>
          6 19 33 18 -1.</_>
        <_>
          17 19 11 18 3.</_></rects>
      <tilted>0</tilted></_>
    <_>
      <rects>
        <_>
          6 22 12 6 -1.</_>
        <_>
          10 22 4 6 3.</_></rects>
      <tilted>0</tilted></_>
    <_>
      <rects>
        <_>
          7 2 31 39 -1.</_>
        <_>
          7 15 31 13 3.</_></rects>
      <tilted>0</tilted></_>
    <_>
      <rects>
        <_>
          7 4 22 9 -1.</_>
        <_>
          7 7 22 3 3.</_></rects>
      <tilted>0</tilted></_>
    <_>
      <rects>
        <_>
          7 8 30 9 -1.</_>
        <_>
          7 11 30 3 3.</_></rects>
      <tilted>0</tilted></_>
    <_>
      <rects>
        <_>
          7 23 36 11 -1.</_>
        <_>
          25 23 18 11 2.</_></rects>
      <tilted>0</tilted></_>
    <_>
      <rects>
        <_>
          8 0 15 1 -1.</_>
        <_>
          13 0 5 1 3.</_></rects>
      <tilted>0</tilted></_>
    <_>
      <rects>
        <_>
          8 1 10 2 -1.</_>
        <_>
          8 1 5 1 2.</_>
        <_>
          13 2 5 1 2.</_></rects>
      <tilted>0</tilted></_>
    <_>
      <rects>
        <_>
          8 7 17 28 -1.</_>
        <_>
          8 21 17 14 2.</_></rects>
      <tilted>0</tilted></_>
    <_>
      <rects>
        <_>
          8 21 10 14 -1.</_>
        <_>
          8 21 5 7 2.</_>
        <_>
          13 28 5 7 2.</_></rects>
      <tilted>0</tilted></_>
    <_>
      <rects>
        <_>
          8 25 10 6 -1.</_>
        <_>
          13 25 5 6 2.</_></rects>
      <tilted>0</tilted></_>
    <_>
      <rects>
        <_>
          9 13 6 28 -1.</_>
        <_>
          9 13 3 14 2.</_>
        <_>
          12 27 3 14 2.</_></rects>
      <tilted>0</tilted></_>
    <_>
      <rects>
        <_>
          9 17 9 8 -1.</_>
        <_>
          12 17 3 8 3.</_></rects>
      <tilted>0</tilted></_>
    <_>
      <rects>
        <_>
          9 17 8 6 -1.</_>
        <_>
          13 17 4 6 2.</_></rects>
      <tilted>0</tilted></_>
    <_>
      <rects>
        <_>
          9 19 6 9 -1.</_>
        <_>
          11 19 2 9 3.</_></rects>
      <tilted>0</tilted></_>
    <_>
      <rects>
        <_>
          10 0 22 16 -1.</_>
        <_>
          10 8 22 8 2.</_></rects>
      <tilted>0</tilted></_>
    <_>
      <rects>
        <_>
          10 10 20 14 -1.</_>
        <_>
          10 17 20 7 2.</_></rects>
      <tilted>0</tilted></_>
    <_>
      <rects>
        <_>
          10 19 4 1 -1.</_>
        <_>
          12 19 2 1 2.</_></rects>
      <tilted>0</tilted></_>
    <_>
      <rects>
        <_>
          10 22 8 12 -1.</_>
        <_>
          10 22 4 6 2.</_>
        <_>
          14 28 4 6 2.</_></rects>
      <tilted>0</tilted></_>
    <_>
      <rects>
        <_>
          11 4 22 12 -1.</_>
        <_>
          11 4 11 6 2.</_>
        <_>
          22 10 11 6 2.</_></rects>
      <tilted>0</tilted></_>
    <_>
      <rects>
        <_>
          11 13 33 27 -1.</_>
        <_>
          22 13 11 27 3.</_></rects>
      <tilted>0</tilted></_>
    <_>
      <rects>
        <_>
          11 34 12 14 -1.</_>
        <_>
          11 34 6 7 2.</_>
        <_>
          17 41 6 7 2.</_></rects>
      <tilted>0</tilted></_>
    <_>
      <rects>
        <_>
          12 7 30 9 -1.</_>
        <_>
          12 10 30 3 3.</_></rects>
      <tilted>0</tilted></_>
    <_>
      <rects>
        <_>
          12 8 17 4 -1.</_>
        <_>
          12 10 17 2 2.</_></rects>
      <tilted>0</tilted></_>
    <_>
      <rects>
        <_>
          12 11 30 26 -1.</_>
        <_>
          22 11 10 26 3.</_></rects>
      <tilted>0</tilted></_>
    <_>
      <rects>
        <_>
          12 12 33 14 -1.</_>
        <_>
          23 12 11 14 3.</_></rects>
      <tilted>0</tilted></_>
    <_>
      <rects>
        <_>
          12 13 33 30 -1.</_>
        <_>
          23 13 11 30 3.</_></rects>
      <tilted>0</tilted></_>
    <_>
      <rects>
        <_>
          12 18 3 8 -1.</_>
        <_>
          13 18 1 8 3.</_></rects>
      <tilted>0</tilted></_>
    <_>
      <rects>
        <_>
          12 29 14 11 -1.</_>
        <_>
          19 29 7 11 2.</_></rects>
      <tilted>0</tilted></_>
    <_>
      <rects>
        <_>
          12 32 3 4 -1.</_>
        <_>
          13 32 1 4 3.</_></rects>
      <tilted>0</tilted></_>
    <_>
      <rects>
        <_>
          13 5 17 24 -1.</_>
        <_>
          13 13 17 8 3.</_></rects>
      <tilted>0</tilted></_>
    <_>
      <rects>
        <_>
          13 9 14 18 -1.</_>
        <_>
          13 9 7 9 2.</_>
        <_>
          20 18 7 9 2.</_></rects>
      <tilted>0</tilted></_>
    <_>
      <rects>
        <_>
          13 9 10 20 -1.</_>
        <_>
          13 19 10 10 2.</_></rects>
      <tilted>0</tilted></_>
    <_>
      <rects>
        <_>
          14 9 10 18 -1.</_>
        <_>
          14 9 5 9 2.</_>
        <_>
          19 18 5 9 2.</_></rects>
      <tilted>0</tilted></_>
    <_>
      <rects>
        <_>
          14 9 17 21 -1.</_>
        <_>
          14 16 17 7 3.</_></rects>
      <tilted>0</tilted></_>
    <_>
      <rects>
        <_>
          14 14 20 1 -1.</_>
        <_>
          24 14 10 1 2.</_></rects>
      <tilted>0</tilted></_>
    <_>
      <rects>
        <_>
          14 16 16 17 -1.</_>
        <_>
          22 16 8 17 2.</_></rects>
      <tilted>0</tilted></_>
    <_>
      <rects>
        <_>
          14 21 13 8 -1.</_>
        <_>
          14 25 13 4 2.</_></rects>
      <tilted>0</tilted></_>
    <_>
      <rects>
        <_>
          14 28 10 12 -1.</_>
        <_>
          14 34 10 6 2.</_></rects>
      <tilted>0</tilted></_>
    <_>
      <rects>
        <_>
          14 30 9 4 -1.</_>
        <_>
          14 32 9 2 2.</_></rects>
      <tilted>0</tilted></_>
    <_>
      <rects>
        <_>
          15 7 12 20 -1.</_>
        <_>
          15 7 6 10 2.</_>
        <_>
          21 17 6 10 2.</_></rects>
      <tilted>0</tilted></_>
    <_>
      <rects>
        <_>
          15 23 3 8 -1.</_>
        <_>
          15 27 3 4 2.</_></rects>
      <tilted>0</tilted></_>
    <_>
      <rects>
        <_>
          15 26 10 12 -1.</_>
        <_>
          20 26 5 12 2.</_></rects>
      <tilted>0</tilted></_>
    <_>
      <rects>
        <_>
          15 30 8 6 -1.</_>
        <_>
          15 33 8 3 2.</_></rects>
      <tilted>0</tilted></_>
    <_>
      <rects>
        <_>
          16 0 16 22 -1.</_>
        <_>
          16 11 16 11 2.</_></rects>
      <tilted>0</tilted></_>
    <_>
      <rects>
        <_>
          16 0 21 45 -1.</_>
        <_>
          16 15 21 15 3.</_></rects>
      <tilted>0</tilted></_>
    <_>
      <rects>
        <_>
          16 9 8 14 -1.</_>
        <_>
          16 9 4 7 2.</_>
        <_>
          20 16 4 7 2.</_></rects>
      <tilted>0</tilted></_>
    <_>
      <rects>
        <_>
          16 11 27 29 -1.</_>
        <_>
          25 11 9 29 3.</_></rects>
      <tilted>0</tilted></_>
    <_>
      <rects>
        <_>
          16 19 18 11 -1.</_>
        <_>
          25 19 9 11 2.</_></rects>
      <tilted>0</tilted></_>
    <_>
      <rects>
        <_>
          16 24 3 6 -1.</_>
        <_>
          16 27 3 3 2.</_></rects>
      <tilted>0</tilted></_>
    <_>
      <rects>
        <_>
          16 25 4 6 -1.</_>
        <_>
          16 28 4 3 2.</_></rects>
      <tilted>0</tilted></_>
    <_>
      <rects>
        <_>
          16 29 14 12 -1.</_>
        <_>
          16 35 14 6 2.</_></rects>
      <tilted>0</tilted></_>
    <_>
      <rects>
        <_>
          16 30 16 15 -1.</_>
        <_>
          16 35 16 5 3.</_></rects>
      <tilted>0</tilted></_>
    <_>
      <rects>
        <_>
          17 0 12 45 -1.</_>
        <_>
          17 15 12 15 3.</_></rects>
      <tilted>0</tilted></_>
    <_>
      <rects>
        <_>
          17 8 18 18 -1.</_>
        <_>
          17 14 18 6 3.</_></rects>
      <tilted>0</tilted></_>
    <_>
      <rects>
        <_>
          17 15 27 21 -1.</_>
        <_>
          26 15 9 21 3.</_></rects>
      <tilted>0</tilted></_>
    <_>
      <rects>
        <_>
          17 18 8 6 -1.</_>
        <_>
          17 20 8 2 3.</_></rects>
      <tilted>0</tilted></_>
    <_>
      <rects>
        <_>
          17 22 9 11 -1.</_>
        <_>
          20 22 3 11 3.</_></rects>
      <tilted>0</tilted></_>
    <_>
      <rects>
        <_>
          17 26 10 17 -1.</_>
        <_>
          22 26 5 17 2.</_></rects>
      <tilted>0</tilted></_>
    <_>
      <rects>
        <_>
          17 31 17 16 -1.</_>
        <_>
          17 39 17 8 2.</_></rects>
      <tilted>0</tilted></_>
    <_>
      <rects>
        <_>
          18 13 15 15 -1.</_>
        <_>
          18 18 15 5 3.</_></rects>
      <tilted>0</tilted></_>
    <_>
      <rects>
        <_>
          18 15 24 22 -1.</_>
        <_>
          26 15 8 22 3.</_></rects>
      <tilted>0</tilted></_>
    <_>
      <rects>
        <_>
          18 17 24 14 -1.</_>
        <_>
          18 17 12 7 2.</_>
        <_>
          30 24 12 7 2.</_></rects>
      <tilted>0</tilted></_>
    <_>
      <rects>
        <_>
          18 23 2 4 -1.</_>
        <_>
          18 25 2 2 2.</_></rects>
      <tilted>0</tilted></_>
    <_>
      <rects>
        <_>
          18 23 13 6 -1.</_>
        <_>
          18 26 13 3 2.</_></rects>
      <tilted>0</tilted></_>
    <_>
      <rects>
        <_>
          18 24 4 6 -1.</_>
        <_>
          18 27 4 3 2.</_></rects>
      <tilted>0</tilted></_>
    <_>
      <rects>
        <_>
          18 26 14 10 -1.</_>
        <_>
          25 26 7 10 2.</_></rects>
      <tilted>0</tilted></_>
    <_>
      <rects>
        <_>
          19 5 3 38 -1.</_>
        <_>
          19 24 3 19 2.</_></rects>
      <tilted>0</tilted></_>
    <_>
      <rects>
        <_>
          19 7 12 24 -1.</_>
        <_>
          19 15 12 8 3.</_></rects>
      <tilted>0</tilted></_>
    <_>
      <rects>
        <_>
          19 20 6 21 -1.</_>
        <_>
          21 20 2 21 3.</_></rects>
      <tilted>0</tilted></_>
    <_>
      <rects>
        <_>
          19 25 12 15 -1.</_>
        <_>
          25 25 6 15 2.</_></rects>
      <tilted>0</tilted></_>
    <_>
      <rects>
        <_>
          19 25 24 17 -1.</_>
        <_>
          27 25 8 17 3.</_></rects>
      <tilted>0</tilted></_>
    <_>
      <rects>
        <_>
          19 26 4 2 -1.</_>
        <_>
          21 26 2 2 2.</_></rects>
      <tilted>0</tilted></_>
    <_>
      <rects>
        <_>
          19 30 8 7 -1.</_>
        <_>
          23 30 4 7 2.</_></rects>
      <tilted>0</tilted></_>
    <_>
      <rects>
        <_>
          19 30 18 4 -1.</_>
        <_>
          19 30 9 2 2.</_>
        <_>
          28 32 9 2 2.</_></rects>
      <tilted>0</tilted></_>
    <_>
      <rects>
        <_>
          19 45 12 3 -1.</_>
        <_>
          23 45 4 3 3.</_></rects>
      <tilted>0</tilted></_>
    <_>
      <rects>
        <_>
          20 16 4 14 -1.</_>
        <_>
          20 23 4 7 2.</_></rects>
      <tilted>0</tilted></_>
    <_>
      <rects>
        <_>
          20 22 7 8 -1.</_>
        <_>
          20 26 7 4 2.</_></rects>
      <tilted>0</tilted></_>
    <_>
      <rects>
        <_>
          20 35 3 2 -1.</_>
        <_>
          21 35 1 2 3.</_></rects>
      <tilted>0</tilted></_>
    <_>
      <rects>
        <_>
          21 0 15 16 -1.</_>
        <_>
          21 8 15 8 2.</_></rects>
      <tilted>0</tilted></_>
    <_>
      <rects>
        <_>
          21 10 10 18 -1.</_>
        <_>
          21 16 10 6 3.</_></rects>
      <tilted>0</tilted></_>
    <_>
      <rects>
        <_>
          21 16 8 7 -1.</_>
        <_>
          25 16 4 7 2.</_></rects>
      <tilted>0</tilted></_>
    <_>
      <rects>
        <_>
          21 17 6 4 -1.</_>
        <_>
          24 17 3 4 2.</_></rects>
      <tilted>0</tilted></_>
    <_>
      <rects>
        <_>
          21 26 12 2 -1.</_>
        <_>
          25 26 4 2 3.</_></rects>
      <tilted>0</tilted></_>
    <_>
      <rects>
        <_>
          21 28 4 3 -1.</_>
        <_>
          23 28 2 3 2.</_></rects>
      <tilted>0</tilted></_>
    <_>
      <rects>
        <_>
          22 2 6 22 -1.</_>
        <_>
          25 2 3 22 2.</_></rects>
      <tilted>0</tilted></_>
    <_>
      <rects>
        <_>
          22 11 4 3 -1.</_>
        <_>
          22 12 4 1 3.</_></rects>
      <tilted>0</tilted></_>
    <_>
      <rects>
        <_>
          22 16 8 6 -1.</_>
        <_>
          26 16 4 6 2.</_></rects>
      <tilted>0</tilted></_>
    <_>
      <rects>
        <_>
          22 18 7 12 -1.</_>
        <_>
          22 24 7 6 2.</_></rects>
      <tilted>0</tilted></_>
    <_>
      <rects>
        <_>
          22 21 5 6 -1.</_>
        <_>
          22 24 5 3 2.</_></rects>
      <tilted>0</tilted></_>
    <_>
      <rects>
        <_>
          22 22 6 11 -1.</_>
        <_>
          25 22 3 11 2.</_></rects>
      <tilted>0</tilted></_>
    <_>
      <rects>
        <_>
          23 13 18 8 -1.</_>
        <_>
          29 13 6 8 3.</_></rects>
      <tilted>0</tilted></_>
    <_>
      <rects>
        <_>
          23 16 8 7 -1.</_>
        <_>
          27 16 4 7 2.</_></rects>
      <tilted>0</tilted></_>
    <_>
      <rects>
        <_>
          23 19 6 12 -1.</_>
        <_>
          26 19 3 12 2.</_></rects>
      <tilted>0</tilted></_>
    <_>
      <rects>
        <_>
          23 22 2 6 -1.</_>
        <_>
          24 22 1 6 2.</_></rects>
      <tilted>0</tilted></_>
    <_>
      <rects>
        <_>
          23 23 6 15 -1.</_>
        <_>
          26 23 3 15 2.</_></rects>
      <tilted>0</tilted></_>
    <_>
      <rects>
        <_>
          23 26 18 11 -1.</_>
        <_>
          29 26 6 11 3.</_></rects>
      <tilted>0</tilted></_>
    <_>
      <rects>
        <_>
          24 3 6 45 -1.</_>
        <_>
          24 18 6 15 3.</_></rects>
      <tilted>0</tilted></_>
    <_>
      <rects>
        <_>
          24 10 15 16 -1.</_>
        <_>
          29 10 5 16 3.</_></rects>
      <tilted>0</tilted></_>
    <_>
      <rects>
        <_>
          24 12 9 10 -1.</_>
        <_>
          27 12 3 10 3.</_></rects>
      <tilted>0</tilted></_>
    <_>
      <rects>
        <_>
          24 15 5 8 -1.</_>
        <_>
          24 19 5 4 2.</_></rects>
      <tilted>0</tilted></_>
    <_>
      <rects>
        <_>
          24 16 6 6 -1.</_>
        <_>
          27 16 3 6 2.</_></rects>
      <tilted>0</tilted></_>
    <_>
      <rects>
        <_>
          24 19 6 4 -1.</_>
        <_>
          27 19 3 4 2.</_></rects>
      <tilted>0</tilted></_>
    <_>
      <rects>
        <_>
          24 20 2 8 -1.</_>
        <_>
          24 24 2 4 2.</_></rects>
      <tilted>0</tilted></_>
    <_>
      <rects>
        <_>
          24 20 3 6 -1.</_>
        <_>
          24 23 3 3 2.</_></rects>
      <tilted>0</tilted></_>
    <_>
      <rects>
        <_>
          24 21 22 26 -1.</_>
        <_>
          24 21 11 13 2.</_>
        <_>
          35 34 11 13 2.</_></rects>
      <tilted>0</tilted></_>
    <_>
      <rects>
        <_>
          24 23 4 8 -1.</_>
        <_>
          26 23 2 8 2.</_></rects>
      <tilted>0</tilted></_>
    <_>
      <rects>
        <_>
          24 23 15 3 -1.</_>
        <_>
          29 23 5 3 3.</_></rects>
      <tilted>0</tilted></_>
    <_>
      <rects>
        <_>
          24 25 6 6 -1.</_>
        <_>
          26 25 2 6 3.</_></rects>
      <tilted>0</tilted></_>
    <_>
      <rects>
        <_>
          24 28 10 2 -1.</_>
        <_>
          29 28 5 2 2.</_></rects>
      <tilted>0</tilted></_>
    <_>
      <rects>
        <_>
          25 17 6 7 -1.</_>
        <_>
          28 17 3 7 2.</_></rects>
      <tilted>0</tilted></_>
    <_>
      <rects>
        <_>
          25 19 8 6 -1.</_>
        <_>
          29 19 4 6 2.</_></rects>
      <tilted>0</tilted></_>
    <_>
      <rects>
        <_>
          25 23 6 4 -1.</_>
        <_>
          28 23 3 4 2.</_></rects>
      <tilted>0</tilted></_>
    <_>
      <rects>
        <_>
          25 23 6 6 -1.</_>
        <_>
          25 26 6 3 2.</_></rects>
      <tilted>0</tilted></_>
    <_>
      <rects>
        <_>
          25 30 6 10 -1.</_>
        <_>
          28 30 3 10 2.</_></rects>
      <tilted>0</tilted></_>
    <_>
      <rects>
        <_>
          26 1 8 20 -1.</_>
        <_>
          26 11 8 10 2.</_></rects>
      <tilted>0</tilted></_>
    <_>
      <rects>
        <_>
          26 7 3 35 -1.</_>
        <_>
          27 7 1 35 3.</_></rects>
      <tilted>0</tilted></_>
    <_>
      <rects>
        <_>
          26 13 12 12 -1.</_>
        <_>
          30 13 4 12 3.</_></rects>
      <tilted>0</tilted></_>
    <_>
      <rects>
        <_>
          26 15 6 2 -1.</_>
        <_>
          28 15 2 2 3.</_></rects>
      <tilted>0</tilted></_>
    <_>
      <rects>
        <_>
          26 18 3 10 -1.</_>
        <_>
          26 23 3 5 2.</_></rects>
      <tilted>0</tilted></_>
    <_>
      <rects>
        <_>
          26 29 2 4 -1.</_>
        <_>
          27 29 1 4 2.</_></rects>
      <tilted>0</tilted></_>
    <_>
      <rects>
        <_>
          26 34 3 2 -1.</_>
        <_>
          27 34 1 2 3.</_></rects>
      <tilted>0</tilted></_>
    <_>
      <rects>
        <_>
          27 13 6 1 -1.</_>
        <_>
          29 13 2 1 3.</_></rects>
      <tilted>0</tilted></_>
    <_>
      <rects>
        <_>
          27 17 9 2 -1.</_>
        <_>
          30 17 3 2 3.</_></rects>
      <tilted>0</tilted></_>
    <_>
      <rects>
        <_>
          27 24 4 2 -1.</_>
        <_>
          27 25 4 1 2.</_></rects>
      <tilted>0</tilted></_>
    <_>
      <rects>
        <_>
          27 26 2 5 -1.</_>
        <_>
          28 26 1 5 2.</_></rects>
      <tilted>0</tilted></_>
    <_>
      <rects>
        <_>
          27 26 6 4 -1.</_>
        <_>
          30 26 3 4 2.</_></rects>
      <tilted>0</tilted></_>
    <_>
      <rects>
        <_>
          28 18 10 14 -1.</_>
        <_>
          28 18 5 7 2.</_>
        <_>
          33 25 5 7 2.</_></rects>
      <tilted>0</tilted></_>
    <_>
      <rects>
        <_>
          28 23 6 14 -1.</_>
        <_>
          31 23 3 14 2.</_></rects>
      <tilted>0</tilted></_>
    <_>
      <rects>
        <_>
          28 27 4 5 -1.</_>
        <_>
          30 27 2 5 2.</_></rects>
      <tilted>0</tilted></_>
    <_>
      <rects>
        <_>
          29 10 7 26 -1.</_>
        <_>
          29 23 7 13 2.</_></rects>
      <tilted>0</tilted></_>
    <_>
      <rects>
        <_>
          29 11 12 26 -1.</_>
        <_>
          35 11 6 26 2.</_></rects>
      <tilted>0</tilted></_>
    <_>
      <rects>
        <_>
          29 13 9 13 -1.</_>
        <_>
          32 13 3 13 3.</_></rects>
      <tilted>0</tilted></_>
    <_>
      <rects>
        <_>
          29 15 2 10 -1.</_>
        <_>
          29 20 2 5 2.</_></rects>
      <tilted>0</tilted></_>
    <_>
      <rects>
        <_>
          29 15 6 14 -1.</_>
        <_>
          29 15 3 7 2.</_>
        <_>
          32 22 3 7 2.</_></rects>
      <tilted>0</tilted></_>
    <_>
      <rects>
        <_>
          29 17 6 20 -1.</_>
        <_>
          29 27 6 10 2.</_></rects>
      <tilted>0</tilted></_>
    <_>
      <rects>
        <_>
          29 18 4 21 -1.</_>
        <_>
          29 25 4 7 3.</_></rects>
      <tilted>0</tilted></_>
    <_>
      <rects>
        <_>
          29 26 4 6 -1.</_>
        <_>
          31 26 2 6 2.</_></rects>
      <tilted>0</tilted></_>
    <_>
      <rects>
        <_>
          30 15 5 20 -1.</_>
        <_>
          30 25 5 10 2.</_></rects>
      <tilted>0</tilted></_>
    <_>
      <rects>
        <_>
          30 30 4 5 -1.</_>
        <_>
          32 30 2 5 2.</_></rects>
      <tilted>0</tilted></_>
    <_>
      <rects>
        <_>
          31 0 12 1 -1.</_>
        <_>
          37 0 6 1 2.</_></rects>
      <tilted>0</tilted></_>
    <_>
      <rects>
        <_>
          31 24 4 2 -1.</_>
        <_>
          31 24 2 1 2.</_>
        <_>
          33 25 2 1 2.</_></rects>
      <tilted>0</tilted></_>
    <_>
      <rects>
        <_>
          31 24 6 4 -1.</_>
        <_>
          33 24 2 4 3.</_></rects>
      <tilted>0</tilted></_>
    <_>
      <rects>
        <_>
          32 18 9 5 -1.</_>
        <_>
          35 18 3 5 3.</_></rects>
      <tilted>0</tilted></_>
    <_>
      <rects>
        <_>
          33 12 9 14 -1.</_>
        <_>
          36 12 3 14 3.</_></rects>
      <tilted>0</tilted></_>
    <_>
      <rects>
        <_>
          33 19 3 2 -1.</_>
        <_>
          34 19 1 2 3.</_></rects>
      <tilted>0</tilted></_>
    <_>
      <rects>
        <_>
          33 37 14 8 -1.</_>
        <_>
          33 37 7 4 2.</_>
        <_>
          40 41 7 4 2.</_></rects>
      <tilted>0</tilted></_>
    <_>
      <rects>
        <_>
          34 1 12 1 -1.</_>
        <_>
          40 1 6 1 2.</_></rects>
      <tilted>0</tilted></_>
    <_>
      <rects>
        <_>
          34 11 3 13 -1.</_>
        <_>
          35 11 1 13 3.</_></rects>
      <tilted>0</tilted></_>
    <_>
      <rects>
        <_>
          34 13 4 16 -1.</_>
        <_>
          34 13 2 8 2.</_>
        <_>
          36 21 2 8 2.</_></rects>
      <tilted>0</tilted></_>
    <_>
      <rects>
        <_>
          40 12 4 12 -1.</_>
        <_>
          40 12 2 6 2.</_>
        <_>
          42 18 2 6 2.</_></rects>
      <tilted>0</tilted></_>
    <_>
      <rects>
        <_>
          42 3 6 1 -1.</_>
        <_>
          45 3 3 1 2.</_></rects>
      <tilted>0</tilted></_></features></cascade>
</opencv_storage>
