<?xml version="1.0"?>
<opencv_storage>
<stage6>
  <maxWeakCount>18</maxWeakCount>
  <stageThreshold>-9.3794339895248413e-01</stageThreshold>
  <weakClassifiers>
    <_>
      <internalNodes>
        0 -1 1756510 -5.4698646068572998e-02</internalNodes>
      <leafValues>
        7.6447874307632446e-01 3.6968577187508345e-03</leafValues></_>
    <_>
      <internalNodes>
        0 -1 1678927 -3.6493327468633652e-02</internalNodes>
      <leafValues>
        3.8751348853111267e-01 -3.1787797808647156e-01</leafValues></_>
    <_>
      <internalNodes>
        0 -1 1478443 8.4822933422401547e-04</internalNodes>
      <leafValues>
        -3.4200161695480347e-01 2.8911918401718140e-01</leafValues></_>
    <_>
      <internalNodes>
        0 -1 1055754 -2.1585293114185333e-02</internalNodes>
      <leafValues>
        4.7781765460968018e-01 -1.6321265697479248e-01</leafValues></_>
    <_>
      <internalNodes>
        0 -1 1485614 1.7862271517515182e-02</internalNodes>
      <leafValues>
        -1.8130247294902802e-01 4.5290368795394897e-01</leafValues></_>
    <_>
      <internalNodes>
        0 -1 2014447 1.7129657790064812e-03</internalNodes>
      <leafValues>
        -3.3944183588027954e-01 2.5707376003265381e-01</leafValues></_>
    <_>
      <internalNodes>
        0 -1 2181336 -2.5440543889999390e-02</internalNodes>
      <leafValues>
        5.3433775901794434e-01 -1.4581882953643799e-01</leafValues></_>
    <_>
      <internalNodes>
        0 -1 1896540 -2.6612613350152969e-02</internalNodes>
      <leafValues>
        5.2129638195037842e-01 -1.6275542974472046e-01</leafValues></_>
    <_>
      <internalNodes>
        0 -1 2197652 -1.3186185387894511e-03</internalNodes>
      <leafValues>
        3.3420851826667786e-01 -1.9936996698379517e-01</leafValues></_>
    <_>
      <internalNodes>
        0 -1 1549555 -3.6725243553519249e-03</internalNodes>
      <leafValues>
        2.1727375686168671e-01 -3.2221564650535583e-01</leafValues></_>
    <_>
      <internalNodes>
        0 -1 1908852 4.8863794654607773e-04</internalNodes>
      <leafValues>
        9.4150796532630920e-02 -6.5930926799774170e-01</leafValues></_>
    <_>
      <internalNodes>
        0 -1 39719 -1.3793912949040532e-03</internalNodes>
      <leafValues>
        -4.8332360386848450e-01 1.2219101935625076e-01</leafValues></_>
    <_>
      <internalNodes>
        0 -1 1406133 -2.0920885726809502e-03</internalNodes>
      <leafValues>
        5.3958749771118164e-01 -1.2543004751205444e-01</leafValues></_>
    <_>
      <internalNodes>
        0 -1 1953296 1.9711663480848074e-04</internalNodes>
      <leafValues>
        -2.3931069672107697e-01 2.8898766636848450e-01</leafValues></_>
    <_>
      <internalNodes>
        0 -1 2187077 2.6601748540997505e-03</internalNodes>
      <leafValues>
        -1.4925502240657806e-01 4.6177479624748230e-01</leafValues></_>
    <_>
      <internalNodes>
        0 -1 1229162 2.0638490095734596e-02</internalNodes>
      <leafValues>
        1.3587929308414459e-01 -5.2304679155349731e-01</leafValues></_>
    <_>
      <internalNodes>
        0 -1 1316548 1.1257049627602100e-03</internalNodes>
      <leafValues>
        -1.6867288947105408e-01 4.3050768971443176e-01</leafValues></_>
    <_>
      <internalNodes>
        0 -1 1845549 -2.6886467821896076e-03</internalNodes>
      <leafValues>
        2.9231664538383484e-01 -2.7087652683258057e-01</leafValues></_></weakClassifiers></stage6>
</opencv_storage>
