<?xml version="1.0"?>
<opencv_storage>
<stage1>
  <maxWeakCount>10</maxWeakCount>
  <stageThreshold>-1.4009780883789062e+00</stageThreshold>
  <weakClassifiers>
    <_>
      <internalNodes>
        0 -1 1305565 -2.2178720682859421e-02</internalNodes>
      <leafValues>
        6.1384332180023193e-01 -5.4581671953201294e-01</leafValues></_>
    <_>
      <internalNodes>
        0 -1 1532443 -4.4967167079448700e-02</internalNodes>
      <leafValues>
        5.8286488056182861e-01 -5.3299582004547119e-01</leafValues></_>
    <_>
      <internalNodes>
        0 -1 2112164 -1.6393213300034404e-03</internalNodes>
      <leafValues>
        5.3447049856185913e-01 -3.6849224567413330e-01</leafValues></_>
    <_>
      <internalNodes>
        0 -1 704736 -1.0831935703754425e-01</internalNodes>
      <leafValues>
        4.6305963397026062e-01 -3.2723426818847656e-01</leafValues></_>
    <_>
      <internalNodes>
        0 -1 1684115 -1.6056819586083293e-03</internalNodes>
      <leafValues>
        3.7004351615905762e-01 -4.4062861800193787e-01</leafValues></_>
    <_>
      <internalNodes>
        0 -1 1736905 2.0071170292794704e-03</internalNodes>
      <leafValues>
        -4.2041853070259094e-01 3.0676645040512085e-01</leafValues></_>
    <_>
      <internalNodes>
        0 -1 1642818 2.9727978631854057e-02</internalNodes>
      <leafValues>
        1.3631533086299896e-01 -8.3332073688507080e-01</leafValues></_>
    <_>
      <internalNodes>
        0 -1 397236 2.3389503359794617e-02</internalNodes>
      <leafValues>
        -2.4146005511283875e-01 6.0988390445709229e-01</leafValues></_>
    <_>
      <internalNodes>
        0 -1 1910252 -2.7180549222975969e-03</internalNodes>
      <leafValues>
        3.9797750115394592e-01 -3.7474918365478516e-01</leafValues></_>
    <_>
      <internalNodes>
        0 -1 661217 -5.7301245629787445e-02</internalNodes>
      <leafValues>
        6.4783531427383423e-01 -2.3545196652412415e-01</leafValues></_></weakClassifiers></stage1>
</opencv_storage>
